<?xml version="1.0"?>
<opencv_storage>
<stage4>
  <maxWeakCount>13</maxWeakCount>
  <stageThreshold>-1.3308737426996231e-02</stageThreshold>
  <weakClassifiers>
    <_>
      <internalNodes>
        0 -1 25518 2.5961445644497871e-03</internalNodes>
      <leafValues>
        -7.5954198837280273e-01 6.1599212884902954e-01</leafValues></_>
    <_>
      <internalNodes>
        0 -1 32003 1.0280729038640857e-03</internalNodes>
      <leafValues>
        3.3848831057548523e-01 -8.8393628597259521e-01</leafValues></_>
    <_>
      <internalNodes>
        0 -1 68068 -6.1318679945543408e-04</internalNodes>
      <leafValues>
        2.8747594356536865e-01 -8.4539633989334106e-01</leafValues></_>
    <_>
      <internalNodes>
        0 -1 53215 1.4226059429347515e-03</internalNodes>
      <leafValues>
        -6.5895867347717285e-01 4.0190535783767700e-01</leafValues></_>
    <_>
      <internalNodes>
        0 -1 26302 6.3157297670841217e-02</internalNodes>
      <leafValues>
        2.5118049979209900e-01 -9.3521201610565186e-01</leafValues></_>
    <_>
      <internalNodes>
        0 -1 55890 -5.0370208919048309e-04</internalNodes>
      <leafValues>
        1.7460007965564728e-01 -8.8880193233489990e-01</leafValues></_>
    <_>
      <internalNodes>
        0 -1 64949 -2.5118119083344936e-03</internalNodes>
      <leafValues>
        1.9687765836715698e-01 -9.2578321695327759e-01</leafValues></_>
    <_>
      <internalNodes>
        0 -1 37078 -4.7909122076816857e-04</internalNodes>
      <leafValues>
        2.3001104593276978e-01 -9.0970808267593384e-01</leafValues></_>
    <_>
      <internalNodes>
        0 -1 52491 9.1064267326146364e-04</internalNodes>
      <leafValues>
        -9.5094740390777588e-01 1.4326493442058563e-01</leafValues></_>
    <_>
      <internalNodes>
        0 -1 32003 -1.1517426464706659e-03</internalNodes>
      <leafValues>
        -8.1550377607345581e-01 2.0939950644969940e-01</leafValues></_>
    <_>
      <internalNodes>
        0 -1 76031 -1.3956328621134162e-04</internalNodes>
      <leafValues>
        2.7200463414192200e-01 -6.9773590564727783e-01</leafValues></_>
    <_>
      <internalNodes>
        0 -1 31075 7.8109670430421829e-03</internalNodes>
      <leafValues>
        -7.9615402221679688e-01 2.3350875079631805e-01</leafValues></_>
    <_>
      <internalNodes>
        0 -1 32636 -6.9532485213130713e-04</internalNodes>
      <leafValues>
        -9.2271363735198975e-01 2.1881230175495148e-01</leafValues></_></weakClassifiers></stage4>
</opencv_storage>
