<?xml version="1.0"?>
<opencv_storage>
<stage0>
  <maxWeakCount>5</maxWeakCount>
  <stageThreshold>-7.0665091276168823e-01</stageThreshold>
  <weakClassifiers>
    <_>
      <internalNodes>
        0 -1 48414 -3.4396998584270477e-02</internalNodes>
      <leafValues>
        8.6734122037887573e-01 -8.9883267879486084e-01</leafValues></_>
    <_>
      <internalNodes>
        0 -1 51694 3.9935889653861523e-03</internalNodes>
      <leafValues>
        -9.6763759851455688e-01 7.2936147451400757e-01</leafValues></_>
    <_>
      <internalNodes>
        0 -1 27066 4.8899850808084011e-03</internalNodes>
      <leafValues>
        -7.3595923185348511e-01 7.3257040977478027e-01</leafValues></_>
    <_>
      <internalNodes>
        0 -1 36859 -9.2676710337400436e-03</internalNodes>
      <leafValues>
        5.9750783443450928e-01 -8.9269155263900757e-01</leafValues></_>
    <_>
      <internalNodes>
        0 -1 72701 -1.8335978966206312e-03</internalNodes>
      <leafValues>
        6.5067279338836670e-01 -6.7470276355743408e-01</leafValues></_></weakClassifiers></stage0>
</opencv_storage>
