<?xml version="1.0"?>
<opencv_storage>
<stage2>
  <maxWeakCount>9</maxWeakCount>
  <stageThreshold>-4.3475049734115601e-01</stageThreshold>
  <weakClassifiers>
    <_>
      <internalNodes>
        0 -1 32148 -1.7942739650607109e-02</internalNodes>
      <leafValues>
        6.2548261880874634e-01 -9.3305438756942749e-01</leafValues></_>
    <_>
      <internalNodes>
        0 -1 47932 3.6269482225179672e-03</internalNodes>
      <leafValues>
        -6.6005533933639526e-01 6.1146396398544312e-01</leafValues></_>
    <_>
      <internalNodes>
        0 -1 66871 -4.0370938950218260e-04</internalNodes>
      <leafValues>
        -8.8816887140274048e-01 4.0967878699302673e-01</leafValues></_>
    <_>
      <internalNodes>
        0 -1 32933 -1.0527663398534060e-03</internalNodes>
      <leafValues>
        4.6732383966445923e-01 -7.0024842023849487e-01</leafValues></_>
    <_>
      <internalNodes>
        0 -1 74906 5.5740340030752122e-05</internalNodes>
      <leafValues>
        -8.9557337760925293e-01 3.3330541849136353e-01</leafValues></_>
    <_>
      <internalNodes>
        0 -1 21380 5.2721854299306870e-02</internalNodes>
      <leafValues>
        -6.1104089021682739e-01 4.7189813852310181e-01</leafValues></_>
    <_>
      <internalNodes>
        0 -1 35197 6.7904796451330185e-03</internalNodes>
      <leafValues>
        -5.6090009212493896e-01 4.9564060568809509e-01</leafValues></_>
    <_>
      <internalNodes>
        0 -1 53698 -1.7773818690329790e-03</internalNodes>
      <leafValues>
        4.1312563419342041e-01 -5.9351253509521484e-01</leafValues></_>
    <_>
      <internalNodes>
        0 -1 60650 -1.8164617940783501e-02</internalNodes>
      <leafValues>
        3.2805651426315308e-01 -8.5167050361633301e-01</leafValues></_></weakClassifiers></stage2>
</opencv_storage>
