<?xml version="1.0"?>
<opencv_storage>
<stage7>
  <maxWeakCount>5</maxWeakCount>
  <stageThreshold>-3.6804288625717163e-01</stageThreshold>
  <weakClassifiers>
    <_>
      <internalNodes>
        0 -1 48325 2.1737039089202881e-02</internalNodes>
      <leafValues>
        5.9387665987014771e-01 -8.7473905086517334e-01</leafValues></_>
    <_>
      <internalNodes>
        0 -1 47309 3.5437352955341339e-02</internalNodes>
      <leafValues>
        -4.9978667497634888e-01 6.9089722633361816e-01</leafValues></_>
    <_>
      <internalNodes>
        0 -1 70027 -2.3512761108577251e-03</internalNodes>
      <leafValues>
        4.4017580151557922e-01 -7.2156411409378052e-01</leafValues></_>
    <_>
      <internalNodes>
        0 -1 18980 -3.6698661744594574e-02</internalNodes>
      <leafValues>
        -9.4083070755004883e-01 3.0272600054740906e-01</leafValues></_>
    <_>
      <internalNodes>
        0 -1 58304 1.6669406322762370e-03</internalNodes>
      <leafValues>
        -8.8696134090423584e-01 2.6358103752136230e-01</leafValues></_></weakClassifiers></stage7>
</opencv_storage>
