<?xml version="1.0"?>
<opencv_storage>
<stage5>
  <maxWeakCount>7</maxWeakCount>
  <stageThreshold>-1.0406566858291626e+00</stageThreshold>
  <weakClassifiers>
    <_>
      <internalNodes>
        0 -1 39116 2.5877237319946289e-02</internalNodes>
      <leafValues>
        -6.4343595504760742e-01 6.7134046554565430e-01</leafValues></_>
    <_>
      <internalNodes>
        0 -1 42954 2.3607455193996429e-02</internalNodes>
      <leafValues>
        -4.4432282447814941e-01 6.9136226177215576e-01</leafValues></_>
    <_>
      <internalNodes>
        0 -1 38936 -8.5971504449844360e-04</internalNodes>
      <leafValues>
        4.8524996638298035e-01 -6.3053178787231445e-01</leafValues></_>
    <_>
      <internalNodes>
        0 -1 37067 -3.2125593861564994e-04</internalNodes>
      <leafValues>
        4.2156702280044556e-01 -6.9566082954406738e-01</leafValues></_>
    <_>
      <internalNodes>
        0 -1 74841 2.0369332924019545e-04</internalNodes>
      <leafValues>
        -8.3974868059158325e-01 3.0149656534194946e-01</leafValues></_>
    <_>
      <internalNodes>
        0 -1 29508 -9.0854987502098083e-03</internalNodes>
      <leafValues>
        7.9425650835037231e-01 -3.7268570065498352e-01</leafValues></_>
    <_>
      <internalNodes>
        0 -1 74580 -1.3913339935243130e-03</internalNodes>
      <leafValues>
        -8.6950832605361938e-01 3.2870212197303772e-01</leafValues></_></weakClassifiers></stage5>
</opencv_storage>
