<?xml version="1.0"?>
<opencv_storage>
<stage6>
  <maxWeakCount>6</maxWeakCount>
  <stageThreshold>-4.0570476651191711e-01</stageThreshold>
  <weakClassifiers>
    <_>
      <internalNodes>
        0 -1 53215 1.1389583814889193e-03</internalNodes>
      <leafValues>
        -4.9557521939277649e-01 6.5969800949096680e-01</leafValues></_>
    <_>
      <internalNodes>
        0 -1 57713 -2.7639199979603291e-03</internalNodes>
      <leafValues>
        3.9423283934593201e-01 -8.5411339998245239e-01</leafValues></_>
    <_>
      <internalNodes>
        0 -1 64949 -9.3190197367221117e-04</internalNodes>
      <leafValues>
        2.4850502610206604e-01 -9.6757215261459351e-01</leafValues></_>
    <_>
      <internalNodes>
        0 -1 32635 -5.8448471827432513e-04</internalNodes>
      <leafValues>
        2.4387371540069580e-01 -8.0572688579559326e-01</leafValues></_>
    <_>
      <internalNodes>
        0 -1 43633 2.5892542675137520e-02</internalNodes>
      <leafValues>
        2.4723923206329346e-01 -9.2530578374862671e-01</leafValues></_>
    <_>
      <internalNodes>
        0 -1 25889 1.6694352962076664e-03</internalNodes>
      <leafValues>
        -8.6766058206558228e-01 2.2163766622543335e-01</leafValues></_></weakClassifiers></stage6>
</opencv_storage>
