<?xml version="1.0"?>
<opencv_storage>
<stage7>
  <maxWeakCount>6</maxWeakCount>
  <stageThreshold>-5.1097160577774048e-01</stageThreshold>
  <weakClassifiers>
    <_>
      <internalNodes>
        0 -1 51422 -7.3500396683812141e-04</internalNodes>
      <leafValues>
        5.8976984024047852e-01 -7.9325842857360840e-01</leafValues></_>
    <_>
      <internalNodes>
        0 -1 44785 6.9043803960084915e-03</internalNodes>
      <leafValues>
        -7.5056368112564087e-01 3.9451158046722412e-01</leafValues></_>
    <_>
      <internalNodes>
        0 -1 66640 -2.0332238636910915e-03</internalNodes>
      <leafValues>
        -8.9251297712326050e-01 3.0298531055450439e-01</leafValues></_>
    <_>
      <internalNodes>
        0 -1 32148 -1.6762353479862213e-02</internalNodes>
      <leafValues>
        2.4711352586746216e-01 -9.7241878509521484e-01</leafValues></_>
    <_>
      <internalNodes>
        0 -1 30840 2.3949518799781799e-03</internalNodes>
      <leafValues>
        2.2738066315650940e-01 -9.2617297172546387e-01</leafValues></_>
    <_>
      <internalNodes>
        0 -1 72565 -2.2637767251580954e-03</internalNodes>
      <leafValues>
        3.0579400062561035e-01 -6.8660026788711548e-01</leafValues></_></weakClassifiers></stage7>
</opencv_storage>
