<?xml version="1.0"?>
<opencv_storage>
<stage4>
  <maxWeakCount>7</maxWeakCount>
  <stageThreshold>-7.3175090551376343e-01</stageThreshold>
  <weakClassifiers>
    <_>
      <internalNodes>
        0 -1 32947 2.1193320862948895e-03</internalNodes>
      <leafValues>
        -5.8391124010086060e-01 6.9491523504257202e-01</leafValues></_>
    <_>
      <internalNodes>
        0 -1 47942 5.6960079818964005e-03</internalNodes>
      <leafValues>
        -5.7009798288345337e-01 5.6524902582168579e-01</leafValues></_>
    <_>
      <internalNodes>
        0 -1 53036 -1.9275207072496414e-02</internalNodes>
      <leafValues>
        -8.8742226362228394e-01 3.1198540329933167e-01</leafValues></_>
    <_>
      <internalNodes>
        0 -1 56043 -1.0477509204065427e-04</internalNodes>
      <leafValues>
        2.8896510601043701e-01 -8.5877013206481934e-01</leafValues></_>
    <_>
      <internalNodes>
        0 -1 38963 6.6616490948945284e-04</internalNodes>
      <leafValues>
        -8.1041151285171509e-01 2.5443205237388611e-01</leafValues></_>
    <_>
      <internalNodes>
        0 -1 72565 -2.2568316198885441e-03</internalNodes>
      <leafValues>
        3.7210246920585632e-01 -6.6746938228607178e-01</leafValues></_>
    <_>
      <internalNodes>
        0 -1 26610 4.2588952928781509e-02</internalNodes>
      <leafValues>
        2.3434507846832275e-01 -9.6913164854049683e-01</leafValues></_></weakClassifiers></stage4>
</opencv_storage>
