<?xml version="1.0"?>
<opencv_storage>
<stage10>
  <maxWeakCount>5</maxWeakCount>
  <stageThreshold>-5.0310230255126953e-01</stageThreshold>
  <weakClassifiers>
    <_>
      <internalNodes>
        0 -1 74580 5.9113779570907354e-04</internalNodes>
      <leafValues>
        5.6573706865310669e-01 -8.5714286565780640e-01</leafValues></_>
    <_>
      <internalNodes>
        0 -1 37073 -2.9468291904777288e-04</internalNodes>
      <leafValues>
        3.3281007409095764e-01 -8.6807620525360107e-01</leafValues></_>
    <_>
      <internalNodes>
        0 -1 44613 5.4776683449745178e-02</internalNodes>
      <leafValues>
        -5.5590951442718506e-01 5.1503372192382813e-01</leafValues></_>
    <_>
      <internalNodes>
        0 -1 74484 -1.9724275916814804e-03</internalNodes>
      <leafValues>
        -8.0966103076934814e-01 3.5822078585624695e-01</leafValues></_>
    <_>
      <internalNodes>
        0 -1 25913 9.9202785640954971e-03</internalNodes>
      <leafValues>
        -9.6362668275833130e-01 2.1891923248767853e-01</leafValues></_></weakClassifiers></stage10>
</opencv_storage>
