<?xml version="1.0"?>
<opencv_storage>
<stage12>
  <maxWeakCount>5</maxWeakCount>
  <stageThreshold>-7.6169866323471069e-01</stageThreshold>
  <weakClassifiers>
    <_>
      <internalNodes>
        0 -1 32003 1.0035417508333921e-03</internalNodes>
      <leafValues>
        5.9144169092178345e-01 -8.2608693838119507e-01</leafValues></_>
    <_>
      <internalNodes>
        0 -1 20734 4.3217167258262634e-02</internalNodes>
      <leafValues>
        -5.6490993499755859e-01 5.2717840671539307e-01</leafValues></_>
    <_>
      <internalNodes>
        0 -1 46977 -2.3408072593156248e-04</internalNodes>
      <leafValues>
        4.2950832843780518e-01 -6.8966913223266602e-01</leafValues></_>
    <_>
      <internalNodes>
        0 -1 23178 -7.7081313356757164e-03</internalNodes>
      <leafValues>
        7.0160627365112305e-01 -3.9676690101623535e-01</leafValues></_>
    <_>
      <internalNodes>
        0 -1 61459 -2.5181758683174849e-03</internalNodes>
      <leafValues>
        -9.4105631113052368e-01 2.9820564389228821e-01</leafValues></_></weakClassifiers></stage12>
</opencv_storage>
