<?xml version="1.0"?>
<opencv_storage>
<stage6>
  <maxWeakCount>5</maxWeakCount>
  <stageThreshold>-1.0198187828063965e+00</stageThreshold>
  <weakClassifiers>
    <_>
      <internalNodes>
        0 -1 32635 -6.9971801713109016e-04</internalNodes>
      <leafValues>
        6.8246716260910034e-01 -6.0862863063812256e-01</leafValues></_>
    <_>
      <internalNodes>
        0 -1 44625 4.7759801149368286e-02</internalNodes>
      <leafValues>
        -5.8830225467681885e-01 6.2629836797714233e-01</leafValues></_>
    <_>
      <internalNodes>
        0 -1 64949 -1.7314793076366186e-03</internalNodes>
      <leafValues>
        3.3326786756515503e-01 -9.4284880161285400e-01</leafValues></_>
    <_>
      <internalNodes>
        0 -1 43267 9.9521987140178680e-03</internalNodes>
      <leafValues>
        -4.8440697789192200e-01 6.6863334178924561e-01</leafValues></_>
    <_>
      <internalNodes>
        0 -1 47513 1.0503670200705528e-02</internalNodes>
      <leafValues>
        -9.1113859415054321e-01 3.2825118303298950e-01</leafValues></_></weakClassifiers></stage6>
</opencv_storage>
