<?xml version="1.0"?>
<opencv_storage>
<cascade>
  <stageType>BOOST</stageType>
  <featureType>HAAR</featureType>
  <height>20</height>
  <width>20</width>
  <stageParams>
    <boostType>GAB</boostType>
    <minHitRate>9.9500000476837158e-01</minHitRate>
    <maxFalseAlarm>5.0000000000000000e-01</maxFalseAlarm>
    <weightTrimRate>9.4999999999999996e-01</weightTrimRate>
    <maxDepth>1</maxDepth>
    <maxWeakCount>100</maxWeakCount></stageParams>
  <featureParams>
    <maxCatCount>0</maxCatCount>
    <featSize>1</featSize>
    <mode>BASIC</mode></featureParams>
  <stageNum>8</stageNum>
  <stages>
    <!-- stage 0 -->
    <_>
      <maxWeakCount>2</maxWeakCount>
      <stageThreshold>-1.6947121918201447e-01</stageThreshold>
      <weakClassifiers>
        <_>
          <internalNodes>
            0 -1 13 -3.4396998584270477e-02</internalNodes>
          <leafValues>
            8.6734122037887573e-01 -8.9883267879486084e-01</leafValues></_>
        <_>
          <internalNodes>
            0 -1 17 3.9935889653861523e-03</internalNodes>
          <leafValues>
            -9.6763759851455688e-01 7.2936147451400757e-01</leafValues></_></weakClassifiers></_>
    <!-- stage 1 -->
    <_>
      <maxWeakCount>2</maxWeakCount>
      <stageThreshold>-1.5138250589370728e-01</stageThreshold>
      <weakClassifiers>
        <_>
          <internalNodes>
            0 -1 20 -2.2743534296751022e-02</internalNodes>
          <leafValues>
            7.9500794410705566e-01 -9.7001498937606812e-01</leafValues></_>
        <_>
          <internalNodes>
            0 -1 14 2.6016101241111755e-02</internalNodes>
          <leafValues>
            -7.2999626398086548e-01 8.1863248348236084e-01</leafValues></_></weakClassifiers></_>
    <!-- stage 2 -->
    <_>
      <maxWeakCount>4</maxWeakCount>
      <stageThreshold>-6.8684166669845581e-01</stageThreshold>
      <weakClassifiers>
        <_>
          <internalNodes>
            0 -1 7 -2.4540289305150509e-03</internalNodes>
          <leafValues>
            7.6628971099853516e-01 -8.2683980464935303e-01</leafValues></_>
        <_>
          <internalNodes>
            0 -1 18 3.7521153688430786e-02</internalNodes>
          <leafValues>
            -8.1088393926620483e-01 6.3425081968307495e-01</leafValues></_>
        <_>
          <internalNodes>
            0 -1 15 -8.8787812273949385e-04</internalNodes>
          <leafValues>
            4.5851758122444153e-01 -8.4819298982620239e-01</leafValues></_>
        <_>
          <internalNodes>
            0 -1 2 -1.6918703913688660e-02</internalNodes>
          <leafValues>
            3.8465285301208496e-01 -9.5277023315429688e-01</leafValues></_></weakClassifiers></_>
    <!-- stage 3 -->
    <_>
      <maxWeakCount>4</maxWeakCount>
      <stageThreshold>-3.9661476016044617e-01</stageThreshold>
      <weakClassifiers>
        <_>
          <internalNodes>
            0 -1 21 -6.3856667838990688e-04</internalNodes>
          <leafValues>
            8.0817049741744995e-01 -5.9814167022705078e-01</leafValues></_>
        <_>
          <internalNodes>
            0 -1 3 -6.4191594719886780e-04</internalNodes>
          <leafValues>
            6.7230665683746338e-01 -6.4647620916366577e-01</leafValues></_>
        <_>
          <internalNodes>
            0 -1 22 -3.6436971276998520e-03</internalNodes>
          <leafValues>
            4.7236078977584839e-01 -8.9081072807312012e-01</leafValues></_>
        <_>
          <internalNodes>
            0 -1 25 -3.5812117857858539e-04</internalNodes>
          <leafValues>
            -9.1206812858581543e-01 3.7564235925674438e-01</leafValues></_></weakClassifiers></_>
    <!-- stage 4 -->
    <_>
      <maxWeakCount>4</maxWeakCount>
      <stageThreshold>-3.4315603971481323e-01</stageThreshold>
      <weakClassifiers>
        <_>
          <internalNodes>
            0 -1 24 -4.6670185402035713e-03</internalNodes>
          <leafValues>
            6.8672198057174683e-01 -7.6205790042877197e-01</leafValues></_>
        <_>
          <internalNodes>
            0 -1 28 4.6805964666418731e-04</internalNodes>
          <leafValues>
            -7.1960991621017456e-01 5.2295094728469849e-01</leafValues></_>
        <_>
          <internalNodes>
            0 -1 9 -6.7525822669267654e-04</internalNodes>
          <leafValues>
            5.1510542631149292e-01 -7.3816245794296265e-01</leafValues></_>
        <_>
          <internalNodes>
            0 -1 11 1.9888414070010185e-02</internalNodes>
          <leafValues>
            -6.1915451288223267e-01 6.4118170738220215e-01</leafValues></_></weakClassifiers></_>
    <!-- stage 5 -->
    <_>
      <maxWeakCount>4</maxWeakCount>
      <stageThreshold>-3.1809514760971069e-01</stageThreshold>
      <weakClassifiers>
        <_>
          <internalNodes>
            0 -1 12 2.4606512859463692e-02</internalNodes>
          <leafValues>
            -6.4739882946014404e-01 6.9860064983367920e-01</leafValues></_>
        <_>
          <internalNodes>
            0 -1 26 -3.0752611346542835e-03</internalNodes>
          <leafValues>
            4.4952142238616943e-01 -9.1452783346176147e-01</leafValues></_>
        <_>
          <internalNodes>
            0 -1 0 7.3498353362083435e-02</internalNodes>
          <leafValues>
            -4.3773072957992554e-01 7.1491748094558716e-01</leafValues></_>
        <_>
          <internalNodes>
            0 -1 1 -3.5720359534025192e-02</internalNodes>
          <leafValues>
            3.3556276559829712e-01 -9.3629544973373413e-01</leafValues></_></weakClassifiers></_>
    <!-- stage 6 -->
    <_>
      <maxWeakCount>4</maxWeakCount>
      <stageThreshold>-3.9791592955589294e-01</stageThreshold>
      <weakClassifiers>
        <_>
          <internalNodes>
            0 -1 4 2.0403591915965080e-03</internalNodes>
          <leafValues>
            -5.8463728427886963e-01 6.8272876739501953e-01</leafValues></_>
        <_>
          <internalNodes>
            0 -1 6 -3.0180448084138334e-04</internalNodes>
          <leafValues>
            4.2857593297958374e-01 -8.4751576185226440e-01</leafValues></_>
        <_>
          <internalNodes>
            0 -1 19 9.9647575989365578e-03</internalNodes>
          <leafValues>
            -8.5474020242691040e-01 4.3939891457557678e-01</leafValues></_>
        <_>
          <internalNodes>
            0 -1 5 -4.0020118467509747e-03</internalNodes>
          <leafValues>
            6.1288559436798096e-01 -4.7672975063323975e-01</leafValues></_></weakClassifiers></_>
    <!-- stage 7 -->
    <_>
      <maxWeakCount>5</maxWeakCount>
      <stageThreshold>-8.4779560565948486e-01</stageThreshold>
      <weakClassifiers>
        <_>
          <internalNodes>
            0 -1 23 1.7609843052923679e-03</internalNodes>
          <leafValues>
            -8.1092435121536255e-01 5.9594982862472534e-01</leafValues></_>
        <_>
          <internalNodes>
            0 -1 8 2.7584202587604523e-02</internalNodes>
          <leafValues>
            -4.2048481106758118e-01 6.9759386777877808e-01</leafValues></_>
        <_>
          <internalNodes>
            0 -1 16 -8.0859201261773705e-05</internalNodes>
          <leafValues>
            4.0778833627700806e-01 -7.4933791160583496e-01</leafValues></_>
        <_>
          <internalNodes>
            0 -1 27 -1.5414480585604906e-03</internalNodes>
          <leafValues>
            4.4858214259147644e-01 -5.8091896772384644e-01</leafValues></_>
        <_>
          <internalNodes>
            0 -1 10 5.5850797798484564e-04</internalNodes>
          <leafValues>
            -8.3515810966491699e-01 3.0699616670608521e-01</leafValues></_></weakClassifiers></_></stages>
  <features>
    <_>
      <rects>
        <_>
          1 16 18 2 -1.</_>
        <_>
          7 16 6 2 3.</_></rects>
      <tilted>0</tilted></_>
    <_>
      <rects>
        <_>
          3 8 14 5 -1.</_>
        <_>
          10 8 7 5 2.</_></rects>
      <tilted>0</tilted></_>
    <_>
      <rects>
        <_>
          4 8 10 7 -1.</_>
        <_>
          9 8 5 7 2.</_></rects>
      <tilted>0</tilted></_>
    <_>
      <rects>
        <_>
          4 10 2 1 -1.</_>
        <_>
          5 10 1 1 2.</_></rects>
      <tilted>0</tilted></_>
    <_>
      <rects>
        <_>
          4 11 2 6 -1.</_>
        <_>
          4 11 1 3 2.</_>
        <_>
          5 14 1 3 2.</_></rects>
      <tilted>0</tilted></_>
    <_>
      <rects>
        <_>
          5 2 3 2 -1.</_>
        <_>
          5 3 3 1 2.</_></rects>
      <tilted>0</tilted></_>
    <_>
      <rects>
        <_>
          5 6 1 4 -1.</_>
        <_>
          5 8 1 2 2.</_></rects>
      <tilted>0</tilted></_>
    <_>
      <rects>
        <_>
          5 6 1 9 -1.</_>
        <_>
          5 9 1 3 3.</_></rects>
      <tilted>0</tilted></_>
    <_>
      <rects>
        <_>
          5 8 6 3 -1.</_>
        <_>
          7 8 2 3 3.</_></rects>
      <tilted>0</tilted></_>
    <_>
      <rects>
        <_>
          5 12 2 1 -1.</_>
        <_>
          6 12 1 1 2.</_></rects>
      <tilted>0</tilted></_>
    <_>
      <rects>
        <_>
          5 12 2 2 -1.</_>
        <_>
          5 13 2 1 2.</_></rects>
      <tilted>0</tilted></_>
    <_>
      <rects>
        <_>
          6 7 6 3 -1.</_>
        <_>
          8 7 2 3 3.</_></rects>
      <tilted>0</tilted></_>
    <_>
      <rects>
        <_>
          6 12 10 4 -1.</_>
        <_>
          6 14 10 2 2.</_></rects>
      <tilted>0</tilted></_>
    <_>
      <rects>
        <_>
          7 8 6 9 -1.</_>
        <_>
          7 11 6 3 3.</_></rects>
      <tilted>0</tilted></_>
    <_>
      <rects>
        <_>
          7 13 5 6 -1.</_>
        <_>
          7 15 5 2 3.</_></rects>
      <tilted>0</tilted></_>
    <_>
      <rects>
        <_>
          8 3 4 2 -1.</_>
        <_>
          8 4 4 1 2.</_></rects>
      <tilted>0</tilted></_>
    <_>
      <rects>
        <_>
          8 4 2 2 -1.</_>
        <_>
          8 5 2 1 2.</_></rects>
      <tilted>0</tilted></_>
    <_>
      <rects>
        <_>
          8 4 2 6 -1.</_>
        <_>
          8 7 2 3 2.</_></rects>
      <tilted>0</tilted></_>
    <_>
      <rects>
        <_>
          8 5 6 9 -1.</_>
        <_>
          8 8 6 3 3.</_></rects>
      <tilted>0</tilted></_>
    <_>
      <rects>
        <_>
          8 5 7 4 -1.</_>
        <_>
          8 7 7 2 2.</_></rects>
      <tilted>0</tilted></_>
    <_>
      <rects>
        <_>
          8 7 8 4 -1.</_>
        <_>
          12 7 4 4 2.</_></rects>
      <tilted>0</tilted></_>
    <_>
      <rects>
        <_>
          8 9 2 1 -1.</_>
        <_>
          9 9 1 1 2.</_></rects>
      <tilted>0</tilted></_>
    <_>
      <rects>
        <_>
          8 10 8 2 -1.</_>
        <_>
          8 11 8 1 2.</_></rects>
      <tilted>0</tilted></_>
    <_>
      <rects>
        <_>
          8 14 6 3 -1.</_>
        <_>
          8 15 6 1 3.</_></rects>
      <tilted>0</tilted></_>
    <_>
      <rects>
        <_>
          10 14 4 4 -1.</_>
        <_>
          12 14 2 4 2.</_></rects>
      <tilted>0</tilted></_>
    <_>
      <rects>
        <_>
          12 4 2 8 -1.</_>
        <_>
          12 8 2 4 2.</_></rects>
      <tilted>0</tilted></_>
    <_>
      <rects>
        <_>
          12 8 4 7 -1.</_>
        <_>
          14 8 2 7 2.</_></rects>
      <tilted>0</tilted></_>
    <_>
      <rects>
        <_>
          12 11 2 2 -1.</_>
        <_>
          12 12 2 1 2.</_></rects>
      <tilted>0</tilted></_>
    <_>
      <rects>
        <_>
          15 9 2 6 -1.</_>
        <_>
          15 12 2 3 2.</_></rects>
      <tilted>0</tilted></_></features></cascade>
</opencv_storage>
