<?xml version="1.0"?>
<opencv_storage>
<cascade>
  <stageType>BOOST</stageType>
  <featureType>HAAR</featureType>
  <height>20</height>
  <width>20</width>
  <stageParams>
    <boostType>GAB</boostType>
    <minHitRate>9.9500000476837158e-01</minHitRate>
    <maxFalseAlarm>1.0000000149011612e-01</maxFalseAlarm>
    <weightTrimRate>9.4999999999999996e-01</weightTrimRate>
    <maxDepth>1</maxDepth>
    <maxWeakCount>100</maxWeakCount></stageParams>
  <featureParams>
    <maxCatCount>0</maxCatCount>
    <featSize>1</featSize>
    <mode>BASIC</mode></featureParams>
  <stageNum>6</stageNum>
  <stages>
    <!-- stage 0 -->
    <_>
      <maxWeakCount>5</maxWeakCount>
      <stageThreshold>-7.0665091276168823e-01</stageThreshold>
      <weakClassifiers>
        <_>
          <internalNodes>
            0 -1 30 -3.4396998584270477e-02</internalNodes>
          <leafValues>
            8.6734122037887573e-01 -8.9883267879486084e-01</leafValues></_>
        <_>
          <internalNodes>
            0 -1 31 3.9935889653861523e-03</internalNodes>
          <leafValues>
            -9.6763759851455688e-01 7.2936147451400757e-01</leafValues></_>
        <_>
          <internalNodes>
            0 -1 6 4.8899850808084011e-03</internalNodes>
          <leafValues>
            -7.3595923185348511e-01 7.3257040977478027e-01</leafValues></_>
        <_>
          <internalNodes>
            0 -1 18 -9.2676710337400436e-03</internalNodes>
          <leafValues>
            5.9750783443450928e-01 -8.9269155263900757e-01</leafValues></_>
        <_>
          <internalNodes>
            0 -1 51 -1.8335978966206312e-03</internalNodes>
          <leafValues>
            6.5067279338836670e-01 -6.7470276355743408e-01</leafValues></_></weakClassifiers></_>
    <!-- stage 1 -->
    <_>
      <maxWeakCount>6</maxWeakCount>
      <stageThreshold>3.3796198666095734e-02</stageThreshold>
      <weakClassifiers>
        <_>
          <internalNodes>
            0 -1 40 1.2229364365339279e-02</internalNodes>
          <leafValues>
            -6.7581701278686523e-01 7.6582634449005127e-01</leafValues></_>
        <_>
          <internalNodes>
            0 -1 21 -2.5064204819500446e-03</internalNodes>
          <leafValues>
            5.5705994367599487e-01 -8.7476325035095215e-01</leafValues></_>
        <_>
          <internalNodes>
            0 -1 29 -3.4854762256145477e-02</internalNodes>
          <leafValues>
            4.3469503521919250e-01 -9.6904033422470093e-01</leafValues></_>
        <_>
          <internalNodes>
            0 -1 26 -1.3209463097155094e-02</internalNodes>
          <leafValues>
            4.2421635985374451e-01 -8.5351890325546265e-01</leafValues></_>
        <_>
          <internalNodes>
            0 -1 35 -1.1075851507484913e-03</internalNodes>
          <leafValues>
            3.0784288048744202e-01 -9.3615412712097168e-01</leafValues></_>
        <_>
          <internalNodes>
            0 -1 43 -6.8881437182426453e-03</internalNodes>
          <leafValues>
            4.1762217879295349e-01 -7.5727570056915283e-01</leafValues></_></weakClassifiers></_>
    <!-- stage 2 -->
    <_>
      <maxWeakCount>9</maxWeakCount>
      <stageThreshold>-4.3475049734115601e-01</stageThreshold>
      <weakClassifiers>
        <_>
          <internalNodes>
            0 -1 11 -1.7942739650607109e-02</internalNodes>
          <leafValues>
            6.2548261880874634e-01 -9.3305438756942749e-01</leafValues></_>
        <_>
          <internalNodes>
            0 -1 28 3.6269482225179672e-03</internalNodes>
          <leafValues>
            -6.6005533933639526e-01 6.1146396398544312e-01</leafValues></_>
        <_>
          <internalNodes>
            0 -1 48 -4.0370938950218260e-04</internalNodes>
          <leafValues>
            -8.8816887140274048e-01 4.0967878699302673e-01</leafValues></_>
        <_>
          <internalNodes>
            0 -1 16 -1.0527663398534060e-03</internalNodes>
          <leafValues>
            4.6732383966445923e-01 -7.0024842023849487e-01</leafValues></_>
        <_>
          <internalNodes>
            0 -1 54 5.5740340030752122e-05</internalNodes>
          <leafValues>
            -8.9557337760925293e-01 3.3330541849136353e-01</leafValues></_>
        <_>
          <internalNodes>
            0 -1 3 5.2721854299306870e-02</internalNodes>
          <leafValues>
            -6.1104089021682739e-01 4.7189813852310181e-01</leafValues></_>
        <_>
          <internalNodes>
            0 -1 17 6.7904796451330185e-03</internalNodes>
          <leafValues>
            -5.6090009212493896e-01 4.9564060568809509e-01</leafValues></_>
        <_>
          <internalNodes>
            0 -1 36 -1.7773818690329790e-03</internalNodes>
          <leafValues>
            4.1312563419342041e-01 -5.9351253509521484e-01</leafValues></_>
        <_>
          <internalNodes>
            0 -1 42 -1.8164617940783501e-02</internalNodes>
          <leafValues>
            3.2805651426315308e-01 -8.5167050361633301e-01</leafValues></_></weakClassifiers></_>
    <!-- stage 3 -->
    <_>
      <maxWeakCount>11</maxWeakCount>
      <stageThreshold>2.5074982549995184e-03</stageThreshold>
      <weakClassifiers>
        <_>
          <internalNodes>
            0 -1 24 5.0098067149519920e-03</internalNodes>
          <leafValues>
            -6.7235493659973145e-01 6.3340121507644653e-01</leafValues></_>
        <_>
          <internalNodes>
            0 -1 8 -2.0464407280087471e-03</internalNodes>
          <leafValues>
            5.2105891704559326e-01 -6.1000335216522217e-01</leafValues></_>
        <_>
          <internalNodes>
            0 -1 38 -5.7247474614996463e-05</internalNodes>
          <leafValues>
            2.9490214586257935e-01 -8.9914846420288086e-01</leafValues></_>
        <_>
          <internalNodes>
            0 -1 41 4.6836421824991703e-03</internalNodes>
          <leafValues>
            2.8341987729072571e-01 -7.9036772251129150e-01</leafValues></_>
        <_>
          <internalNodes>
            0 -1 46 -2.1250303834676743e-03</internalNodes>
          <leafValues>
            4.1614592075347900e-01 -6.4789831638336182e-01</leafValues></_>
        <_>
          <internalNodes>
            0 -1 12 1.3508615083992481e-03</internalNodes>
          <leafValues>
            -6.8349379301071167e-01 3.3377832174301147e-01</leafValues></_>
        <_>
          <internalNodes>
            0 -1 25 -4.5148897916078568e-03</internalNodes>
          <leafValues>
            6.3823974132537842e-01 -4.0957665443420410e-01</leafValues></_>
        <_>
          <internalNodes>
            0 -1 52 -1.4483550330623984e-03</internalNodes>
          <leafValues>
            -9.0377664566040039e-01 2.8777053952217102e-01</leafValues></_>
        <_>
          <internalNodes>
            0 -1 53 1.1833126336568967e-04</internalNodes>
          <leafValues>
            2.8358495235443115e-01 -8.3356559276580811e-01</leafValues></_>
        <_>
          <internalNodes>
            0 -1 1 1.4627600088715553e-02</internalNodes>
          <leafValues>
            -4.9357935786247253e-01 5.7442688941955566e-01</leafValues></_>
        <_>
          <internalNodes>
            0 -1 23 8.3074148278683424e-05</internalNodes>
          <leafValues>
            -9.2297589778900146e-01 2.5787577033042908e-01</leafValues></_></weakClassifiers></_>
    <!-- stage 4 -->
    <_>
      <maxWeakCount>13</maxWeakCount>
      <stageThreshold>-1.3308737426996231e-02</stageThreshold>
      <weakClassifiers>
        <_>
          <internalNodes>
            0 -1 4 2.5961445644497871e-03</internalNodes>
          <leafValues>
            -7.5954198837280273e-01 6.1599212884902954e-01</leafValues></_>
        <_>
          <internalNodes>
            0 -1 10 1.0280729038640857e-03</internalNodes>
          <leafValues>
            3.3848831057548523e-01 -8.8393628597259521e-01</leafValues></_>
        <_>
          <internalNodes>
            0 -1 49 -6.1318679945543408e-04</internalNodes>
          <leafValues>
            2.8747594356536865e-01 -8.4539633989334106e-01</leafValues></_>
        <_>
          <internalNodes>
            0 -1 34 1.4226059429347515e-03</internalNodes>
          <leafValues>
            -6.5895867347717285e-01 4.0190535783767700e-01</leafValues></_>
        <_>
          <internalNodes>
            0 -1 5 6.3157297670841217e-02</internalNodes>
          <leafValues>
            2.5118049979209900e-01 -9.3521201610565186e-01</leafValues></_>
        <_>
          <internalNodes>
            0 -1 37 -5.0370208919048309e-04</internalNodes>
          <leafValues>
            1.7460007965564728e-01 -8.8880193233489990e-01</leafValues></_>
        <_>
          <internalNodes>
            0 -1 44 -2.5118119083344936e-03</internalNodes>
          <leafValues>
            1.9687765836715698e-01 -9.2578321695327759e-01</leafValues></_>
        <_>
          <internalNodes>
            0 -1 20 -4.7909122076816857e-04</internalNodes>
          <leafValues>
            2.3001104593276978e-01 -9.0970808267593384e-01</leafValues></_>
        <_>
          <internalNodes>
            0 -1 32 9.1064267326146364e-04</internalNodes>
          <leafValues>
            -9.5094740390777588e-01 1.4326493442058563e-01</leafValues></_>
        <_>
          <internalNodes>
            0 -1 10 -1.1517426464706659e-03</internalNodes>
          <leafValues>
            -8.1550377607345581e-01 2.0939950644969940e-01</leafValues></_>
        <_>
          <internalNodes>
            0 -1 55 -1.3956328621134162e-04</internalNodes>
          <leafValues>
            2.7200463414192200e-01 -6.9773590564727783e-01</leafValues></_>
        <_>
          <internalNodes>
            0 -1 7 7.8109670430421829e-03</internalNodes>
          <leafValues>
            -7.9615402221679688e-01 2.3350875079631805e-01</leafValues></_>
        <_>
          <internalNodes>
            0 -1 14 -6.9532485213130713e-04</internalNodes>
          <leafValues>
            -9.2271363735198975e-01 2.1881230175495148e-01</leafValues></_></weakClassifiers></_>
    <!-- stage 5 -->
    <_>
      <maxWeakCount>13</maxWeakCount>
      <stageThreshold>-3.2055032253265381e-01</stageThreshold>
      <weakClassifiers>
        <_>
          <internalNodes>
            0 -1 9 -8.4357876330614090e-03</internalNodes>
          <leafValues>
            -9.4623655080795288e-01 5.5188244581222534e-01</leafValues></_>
        <_>
          <internalNodes>
            0 -1 2 3.1414855038747191e-04</internalNodes>
          <leafValues>
            -6.9082885980606079e-01 3.7053921818733215e-01</leafValues></_>
        <_>
          <internalNodes>
            0 -1 33 3.9627694059163332e-04</internalNodes>
          <leafValues>
            3.3366909623146057e-01 -7.1641910076141357e-01</leafValues></_>
        <_>
          <internalNodes>
            0 -1 19 -1.6513813170604408e-04</internalNodes>
          <leafValues>
            3.2556995749473572e-01 -7.1871888637542725e-01</leafValues></_>
        <_>
          <internalNodes>
            0 -1 22 -5.7467905571684241e-04</internalNodes>
          <leafValues>
            3.4390759468078613e-01 -6.0850816965103149e-01</leafValues></_>
        <_>
          <internalNodes>
            0 -1 15 4.8622686881572008e-04</internalNodes>
          <leafValues>
            2.8017356991767883e-01 -8.2795792818069458e-01</leafValues></_>
        <_>
          <internalNodes>
            0 -1 47 -3.0577785219065845e-04</internalNodes>
          <leafValues>
            2.3397438228130341e-01 -8.4429472684860229e-01</leafValues></_>
        <_>
          <internalNodes>
            0 -1 50 -2.7458649128675461e-03</internalNodes>
          <leafValues>
            2.9024237394332886e-01 -6.3233470916748047e-01</leafValues></_>
        <_>
          <internalNodes>
            0 -1 0 7.0136696100234985e-02</internalNodes>
          <leafValues>
            -3.9720374345779419e-01 5.8161562681198120e-01</leafValues></_>
        <_>
          <internalNodes>
            0 -1 27 -5.7003988331416622e-05</internalNodes>
          <leafValues>
            3.0021449923515320e-01 -7.0725309848785400e-01</leafValues></_>
        <_>
          <internalNodes>
            0 -1 45 -6.7738820798695087e-03</internalNodes>
          <leafValues>
            -9.0687018632888794e-01 2.2889001667499542e-01</leafValues></_>
        <_>
          <internalNodes>
            0 -1 39 -5.6322561576962471e-03</internalNodes>
          <leafValues>
            8.0399382114410400e-01 -3.0379465222358704e-01</leafValues></_>
        <_>
          <internalNodes>
            0 -1 13 -9.8255672492086887e-04</internalNodes>
          <leafValues>
            -8.7389594316482544e-01 2.7713000774383545e-01</leafValues></_></weakClassifiers></_></stages>
  <features>
    <_>
      <rects>
        <_>
          1 16 18 2 -1.</_>
        <_>
          7 16 6 2 3.</_></rects>
      <tilted>0</tilted></_>
    <_>
      <rects>
        <_>
          2 3 6 5 -1.</_>
        <_>
          4 3 2 5 3.</_></rects>
      <tilted>0</tilted></_>
    <_>
      <rects>
        <_>
          2 9 2 6 -1.</_>
        <_>
          2 11 2 2 3.</_></rects>
      <tilted>0</tilted></_>
    <_>
      <rects>
        <_>
          2 15 15 3 -1.</_>
        <_>
          7 15 5 3 3.</_></rects>
      <tilted>0</tilted></_>
    <_>
      <rects>
        <_>
          3 7 8 4 -1.</_>
        <_>
          7 7 4 4 2.</_></rects>
      <tilted>0</tilted></_>
    <_>
      <rects>
        <_>
          3 9 15 6 -1.</_>
        <_>
          8 9 5 6 3.</_></rects>
      <tilted>0</tilted></_>
    <_>
      <rects>
        <_>
          3 12 4 4 -1.</_>
        <_>
          3 12 2 2 2.</_>
        <_>
          5 14 2 2 2.</_></rects>
      <tilted>0</tilted></_>
    <_>
      <rects>
        <_>
          4 5 9 4 -1.</_>
        <_>
          4 7 9 2 2.</_></rects>
      <tilted>0</tilted></_>
    <_>
      <rects>
        <_>
          4 7 2 4 -1.</_>
        <_>
          5 7 1 4 2.</_></rects>
      <tilted>0</tilted></_>
    <_>
      <rects>
        <_>
          4 7 2 6 -1.</_>
        <_>
          4 9 2 2 3.</_></rects>
      <tilted>0</tilted></_>
    <_>
      <rects>
        <_>
          4 8 2 3 -1.</_>
        <_>
          4 9 2 1 3.</_></rects>
      <tilted>0</tilted></_>
    <_>
      <rects>
        <_>
          4 8 10 7 -1.</_>
        <_>
          9 8 5 7 2.</_></rects>
      <tilted>0</tilted></_>
    <_>
      <rects>
        <_>
          4 8 6 3 -1.</_>
        <_>
          4 9 6 1 3.</_></rects>
      <tilted>0</tilted></_>
    <_>
      <rects>
        <_>
          4 9 1 3 -1.</_>
        <_>
          4 10 1 1 3.</_></rects>
      <tilted>0</tilted></_>
    <_>
      <rects>
        <_>
          4 10 1 2 -1.</_>
        <_>
          4 11 1 1 2.</_></rects>
      <tilted>0</tilted></_>
    <_>
      <rects>
        <_>
          4 10 1 3 -1.</_>
        <_>
          4 11 1 1 3.</_></rects>
      <tilted>0</tilted></_>
    <_>
      <rects>
        <_>
          4 11 2 1 -1.</_>
        <_>
          5 11 1 1 2.</_></rects>
      <tilted>0</tilted></_>
    <_>
      <rects>
        <_>
          5 1 12 3 -1.</_>
        <_>
          5 2 12 1 3.</_></rects>
      <tilted>0</tilted></_>
    <_>
      <rects>
        <_>
          5 5 10 2 -1.</_>
        <_>
          10 5 5 2 2.</_></rects>
      <tilted>0</tilted></_>
    <_>
      <rects>
        <_>
          5 6 2 1 -1.</_>
        <_>
          6 6 1 1 2.</_></rects>
      <tilted>0</tilted></_>
    <_>
      <rects>
        <_>
          5 6 1 6 -1.</_>
        <_>
          5 9 1 3 2.</_></rects>
      <tilted>0</tilted></_>
    <_>
      <rects>
        <_>
          5 6 1 9 -1.</_>
        <_>
          5 9 1 3 3.</_></rects>
      <tilted>0</tilted></_>
    <_>
      <rects>
        <_>
          5 11 2 1 -1.</_>
        <_>
          6 11 1 1 2.</_></rects>
      <tilted>0</tilted></_>
    <_>
      <rects>
        <_>
          5 12 2 2 -1.</_>
        <_>
          5 13 2 1 2.</_></rects>
      <tilted>0</tilted></_>
    <_>
      <rects>
        <_>
          5 14 10 3 -1.</_>
        <_>
          5 15 10 1 3.</_></rects>
      <tilted>0</tilted></_>
    <_>
      <rects>
        <_>
          6 2 3 2 -1.</_>
        <_>
          6 3 3 1 2.</_></rects>
      <tilted>0</tilted></_>
    <_>
      <rects>
        <_>
          7 3 8 6 -1.</_>
        <_>
          7 5 8 2 3.</_></rects>
      <tilted>0</tilted></_>
    <_>
      <rects>
        <_>
          7 5 2 1 -1.</_>
        <_>
          8 5 1 1 2.</_></rects>
      <tilted>0</tilted></_>
    <_>
      <rects>
        <_>
          7 7 3 3 -1.</_>
        <_>
          8 7 1 3 3.</_></rects>
      <tilted>0</tilted></_>
    <_>
      <rects>
        <_>
          7 7 10 6 -1.</_>
        <_>
          12 7 5 6 2.</_></rects>
      <tilted>0</tilted></_>
    <_>
      <rects>
        <_>
          7 8 6 9 -1.</_>
        <_>
          7 11 6 3 3.</_></rects>
      <tilted>0</tilted></_>
    <_>
      <rects>
        <_>
          8 4 2 6 -1.</_>
        <_>
          8 7 2 3 2.</_></rects>
      <tilted>0</tilted></_>
    <_>
      <rects>
        <_>
          8 6 8 10 -1.</_>
        <_>
          8 6 4 5 2.</_>
        <_>
          12 11 4 5 2.</_></rects>
      <tilted>0</tilted></_>
    <_>
      <rects>
        <_>
          8 8 6 5 -1.</_>
        <_>
          10 8 2 5 3.</_></rects>
      <tilted>0</tilted></_>
    <_>
      <rects>
        <_>
          8 9 2 4 -1.</_>
        <_>
          8 9 1 2 2.</_>
        <_>
          9 11 1 2 2.</_></rects>
      <tilted>0</tilted></_>
    <_>
      <rects>
        <_>
          8 10 2 2 -1.</_>
        <_>
          8 11 2 1 2.</_></rects>
      <tilted>0</tilted></_>
    <_>
      <rects>
        <_>
          8 11 2 2 -1.</_>
        <_>
          8 12 2 1 2.</_></rects>
      <tilted>0</tilted></_>
    <_>
      <rects>
        <_>
          9 3 4 2 -1.</_>
        <_>
          9 4 4 1 2.</_></rects>
      <tilted>0</tilted></_>
    <_>
      <rects>
        <_>
          9 4 2 1 -1.</_>
        <_>
          10 4 1 1 2.</_></rects>
      <tilted>0</tilted></_>
    <_>
      <rects>
        <_>
          9 6 2 3 -1.</_>
        <_>
          9 7 2 1 3.</_></rects>
      <tilted>0</tilted></_>
    <_>
      <rects>
        <_>
          9 13 3 6 -1.</_>
        <_>
          9 15 3 2 3.</_></rects>
      <tilted>0</tilted></_>
    <_>
      <rects>
        <_>
          10 3 1 15 -1.</_>
        <_>
          10 8 1 5 3.</_></rects>
      <tilted>0</tilted></_>
    <_>
      <rects>
        <_>
          10 6 6 7 -1.</_>
        <_>
          13 6 3 7 2.</_></rects>
      <tilted>0</tilted></_>
    <_>
      <rects>
        <_>
          10 14 4 4 -1.</_>
        <_>
          12 14 2 4 2.</_></rects>
      <tilted>0</tilted></_>
    <_>
      <rects>
        <_>
          11 10 4 5 -1.</_>
        <_>
          13 10 2 5 2.</_></rects>
      <tilted>0</tilted></_>
    <_>
      <rects>
        <_>
          11 10 5 2 -1.</_>
        <_>
          11 11 5 1 2.</_></rects>
      <tilted>0</tilted></_>
    <_>
      <rects>
        <_>
          11 11 3 2 -1.</_>
        <_>
          11 12 3 1 2.</_></rects>
      <tilted>0</tilted></_>
    <_>
      <rects>
        <_>
          11 15 2 1 -1.</_>
        <_>
          12 15 1 1 2.</_></rects>
      <tilted>0</tilted></_>
    <_>
      <rects>
        <_>
          12 4 2 8 -1.</_>
        <_>
          12 8 2 4 2.</_></rects>
      <tilted>0</tilted></_>
    <_>
      <rects>
        <_>
          12 10 5 2 -1.</_>
        <_>
          12 11 5 1 2.</_></rects>
      <tilted>0</tilted></_>
    <_>
      <rects>
        <_>
          13 6 4 4 -1.</_>
        <_>
          13 6 2 2 2.</_>
        <_>
          15 8 2 2 2.</_></rects>
      <tilted>0</tilted></_>
    <_>
      <rects>
        <_>
          14 8 3 5 -1.</_>
        <_>
          15 8 1 5 3.</_></rects>
      <tilted>0</tilted></_>
    <_>
      <rects>
        <_>
          15 8 1 4 -1.</_>
        <_>
          15 10 1 2 2.</_></rects>
      <tilted>0</tilted></_>
    <_>
      <rects>
        <_>
          15 9 1 2 -1.</_>
        <_>
          15 10 1 1 2.</_></rects>
      <tilted>0</tilted></_>
    <_>
      <rects>
        <_>
          15 12 1 2 -1.</_>
        <_>
          15 13 1 1 2.</_></rects>
      <tilted>0</tilted></_>
    <_>
      <rects>
        <_>
          16 7 1 6 -1.</_>
        <_>
          16 9 1 2 3.</_></rects>
      <tilted>0</tilted></_></features></cascade>
</opencv_storage>
